-0.062432 0.297305 -0.544789 -0.121164 -0.236653 -0.539897 0.001428 -0.313462 -0.248342 0.192566 
0.223745 -0.218589 -0.219282 0.315763 0.138202 0.124530 0.187183 0.616728 0.650838 0.079457 
0.468624 -0.260812 0.768357 0.335931 -0.636505 -1.188759 0.821734 0.579712 -1.305857 -0.780489 
0.079887 -0.214485 0.098643 -0.364838 0.347441 0.275430 -0.364289 -0.276718 -0.084270 0.283070 
-0.317660 0.013571 0.192454 0.098251 -1.222149 0.034771 0.726803 0.482423 -0.767836 -0.249464 
0.305330 0.489853 -1.159657 -0.334368 0.188126 -0.280154 0.722078 0.385975 0.277396 0.101223 
-0.005656 0.184335 -0.213925 -0.080728 0.074981 0.676056 0.235833 -0.621746 0.502883 0.410390 
-0.411973 -0.226401 -0.562993 -0.026604 -0.522560 0.112137 0.100944 0.141528 -0.296265 -0.423192 
-0.283820 0.797933 -0.989943 -1.169728 1.049666 0.061420 -0.342337 0.134869 -0.903788 0.010244 
-0.403599 0.494914 0.445550 0.246267 -0.381250 -0.192209 -0.802776 0.275289 -0.719384 -0.139909 
-0.850779 0.262077 -0.013765 -0.059118 -0.271136 0.523888 -0.298146 -0.234170 -0.111820 -0.518946 
-0.447020 -0.209413 -0.016944 -0.361675 -0.312175 -0.202635 -0.255809 -0.289138 -0.798293 -0.598937 
-1.364264 0.812570 -1.302345 0.103061 1.182528 -0.068984 -2.367208 0.655888 -0.848230 0.188373 
-1.136038 0.307191 0.362869 0.840731 -0.321545 -0.100618 0.904476 0.564244 0.237641 -0.275954 
0.220176 0.321795 0.020859 0.354381 0.170334 0.432499 -0.178858 0.088188 0.176810 -0.105957 
-0.396125 -0.343997 -0.092820 -0.128818 0.131960 -0.024848 0.130005 -0.257635 -0.071654 0.115687 
-0.348523 -0.456368 0.100487 -0.697354 0.056134 -0.614708 0.057972 -0.258311 -0.120659 -0.354034 
0.422401 0.523848 0.565516 0.296244 -1.217787 0.994462 0.613779 0.184892 0.912276 -0.569766 
0.518988 -0.043343 0.089223 -0.563168 0.013051 0.734237 0.508045 -0.224721 -0.590068 0.331987 
-0.375353 -0.256821 -0.376694 -0.069599 -0.387936 0.203287 0.237529 0.024514 -0.141674 -0.385659 
0.231020 -1.290096 0.656415 0.729094 0.104372 0.259689 0.201512 0.348058 0.329566 -0.426497 
-0.150405 0.127897 0.352567 0.957110 -0.087797 -0.014372 -0.706385 0.289295 -0.514005 -0.626605 
-0.317092 0.266213 -1.196658 -1.168105 0.718237 0.125895 0.826534 0.664446 -1.213670 -0.179955 
-0.233067 0.376114 -0.021223 0.090156 0.535765 0.037519 0.189053 -0.016879 -0.058624 0.527207 
-0.143034 0.069931 -0.408220 0.105820 -0.070455 -0.240221 -0.033728 -0.500116 -0.399744 0.384053 
0.470700 -0.617390 1.130378 0.845542 -0.158859 0.600150 0.548898 -1.689110 0.581206 0.606269 
-0.402144 0.159782 0.060449 -0.066272 -0.721461 0.427382 0.206795 0.266863 -0.528980 -0.075913 
0.107892 -0.158973 0.393084 -0.031387 -0.156314 0.315309 0.183660 -0.326527 0.192624 0.166514 
0.317789 -0.035993 0.287938 0.303839 0.191369 0.257577 -0.172398 0.193024 0.238165 0.039172 
-0.031382 0.175248 -0.284501 -0.293544 -0.266510 0.421171 -0.228307 -0.290608 -0.089010 -0.317255 
-0.273234 0.114429 -0.285475 -0.058596 0.647778 0.510374 -0.553881 0.304513 0.479737 -1.084310 
-0.480636 -0.459783 -0.752052 -0.038947 -0.517652 -0.287484 0.191198 0.265114 -0.405731 -0.337551 
0.689133 0.462009 0.654867 0.731540 -0.341138 0.621780 0.513164 -1.298356 0.995867 1.378250 
0.397020 0.344792 0.459739 0.136965 -0.494654 0.265339 -0.478835 0.144776 0.642652 0.736115 
0.206705 -0.386358 -0.608543 -0.362427 -0.327351 -0.418330 -0.416379 -0.181835 -0.506837 -0.081857 
0.604919 0.381359 0.857348 -0.392836 -0.174317 -0.830391 -0.454155 0.714263 -0.476587 0.116628 
-0.450707 -0.437668 -0.014284 -0.371149 -0.463115 -0.287725 -0.208116 -0.158310 -0.663454 -0.177652 
-0.396937 0.271614 -0.353691 -0.373362 0.156251 -0.516791 -0.686567 -0.083761 -0.144068 -0.465464 
0.230310 -1.580543 0.298978 1.126878 0.259080 -0.241400 -0.162100 0.699651 0.237810 0.412955 
-0.198278 -0.308705 -0.109216 -0.021381 0.170971 0.182520 -0.040033 -0.151193 0.322672 -0.184899 
-0.114940 -0.146777 0.206182 -0.485657 0.108103 -0.063102 -0.120965 0.085114 -0.441332 -0.233705 
0.139818 -0.050564 -0.026360 0.023774 0.268176 -0.179568 0.026516 -0.224226 -0.298692 -0.098488 
0.264143 0.135851 -0.941079 0.219316 -0.467012 0.041349 0.626270 -0.107350 0.661565 0.621726 
-0.230122 -0.093539 0.150140 -0.067218 -0.498483 -0.247059 -0.031069 0.386370 -0.232994 -0.770712 
-0.073993 0.100843 0.027020 -0.486323 -0.250036 -0.548146 -0.586376 -0.266853 -0.436455 -0.009601 
0.058953 -0.431779 -0.171409 0.027528 -0.239042 -0.410423 -0.070808 -0.051156 -0.234441 0.215267 
0.093468 0.286472 0.179016 0.005238 0.060352 0.552851 0.558407 0.643575 -0.255988 -0.336359 
0.296608 0.218204 0.104091 0.201582 -0.301616 -0.002458 -0.033586 0.491793 0.143440 -0.293754 
0.375133 0.232300 0.251225 -0.801222 -0.405458 1.295326 -0.472360 0.367952 -0.249723 -1.111321 
0.225834 0.175986 0.852964 -0.136519 1.364065 -1.009005 -1.569149 0.739251 1.205666 0.191784 
-1.618320 0.277711 0.425614 -0.029870 -0.065102 -0.469730 -0.795262 -0.103577 -0.340723 -0.109690 
-1.344456 0.445824 1.008265 0.305911 0.478794 -0.854836 0.824642 0.812015 1.641381 0.417254 
-0.298190 0.327502 -0.659688 0.439607 1.123943 -0.592139 0.365018 0.204240 -0.992378 -0.459358 
0.994122 -0.127220 0.936169 -0.078279 -0.973386 0.116502 -1.292703 -0.010778 0.748278 1.164154 
-0.281224 -0.052149 -0.154669 -0.367476 -0.511110 0.052323 -0.196376 -0.066168 -0.300428 -0.418216 
-0.340082 -0.460154 -0.558652 -0.121950 -0.253418 -0.599264 -0.422825 -0.391056 -0.829924 -0.798081 
-0.308192 -0.141226 0.146034 -0.870460 0.010336 -0.090496 -0.384307 -0.490222 -0.244343 -0.053601 
-0.648579 0.023811 -0.330801 -0.161521 0.260313 0.627084 0.116857 0.021695 -0.093933 -0.156849 
0.141965 0.127064 -0.088991 -0.078583 -0.205227 0.075919 0.247907 0.185655 -0.213501 0.146924 
-0.638896 -0.268183 -0.112803 0.049696 -0.124522 0.516519 -0.107590 0.321857 -0.054397 -0.050095 
-0.178048 -0.505060 -0.534460 -0.046679 0.114937 0.250664 -0.219013 -0.048609 -0.117854 -0.555512 
0.325870 0.396097 -0.466859 0.709497 -1.375836 -0.540448 -2.057303 0.845941 -0.628445 1.375446 
0.309279 0.136957 -1.375488 -0.561166 -0.069209 0.499502 0.290398 -0.358249 0.288247 0.462907 
0.010514 -0.194894 -0.038995 0.427602 0.357147 0.015286 -0.043372 0.463813 -0.081127 0.382936 
0.783912 -0.111723 -1.413958 0.807661 0.448719 0.301385 -1.011542 -0.062827 -0.037280 0.297861 
0.199932 -0.500186 -0.228379 -0.024956 -0.321624 -0.256284 -0.174531 -0.458723 -0.518108 -0.466465 
-1.731630 0.842749 -0.640860 0.611071 -0.524772 1.548610 -1.573397 0.236751 0.687131 -0.634931 
0.020336 0.277094 -0.185764 -0.196020 -0.380183 0.087154 -0.144273 0.508007 -0.082986 0.040243 
1.103089 -0.061861 0.306727 -0.756105 -0.304720 -0.440430 0.071505 0.622509 0.013794 0.346203 
0.250727 0.248553 0.125509 0.404895 -0.373437 -1.835587 -0.136283 0.234242 0.095815 0.028430 
-1.710884 0.304610 -0.311641 -0.257486 -0.826614 1.016849 0.030649 -0.314288 -0.135910 0.034847 
-0.259513 0.181636 -0.036476 0.098213 -0.466893 0.046181 0.042260 -0.163312 -0.571621 0.126202 
-0.021871 -0.486696 -0.249348 0.035614 -0.374753 -0.439965 0.181411 0.423916 -0.275898 0.011722 
-0.281904 0.093393 -0.248399 -0.132177 -0.489337 -0.279454 -0.131812 0.072094 -0.265868 0.112596 
-0.569275 0.392898 0.451285 -0.185621 0.516240 0.509559 0.203821 0.143774 -0.568491 -1.381053 
0.294028 0.158962 0.134475 0.086019 0.782443 0.170588 0.195619 -0.721238 0.099820 0.875284 
0.256705 -0.264737 -0.558424 -0.391262 -0.606494 -0.514184 -0.627003 -0.175443 -0.278121 -0.050014 
-2.187676 0.755065 -0.063041 0.981818 -0.433065 -0.994831 0.147020 0.427676 -1.470043 0.106276 
0.038234 -0.308013 -0.329094 -0.317627 -0.375819 -0.511428 0.172748 -0.486391 -0.219103 -0.608137 
-0.357724 -0.213587 -0.419787 -0.191844 0.386167 -0.666445 0.065675 -0.092831 -0.208009 -0.355025 
-0.539277 -0.185699 -0.232262 -0.114888 -0.395088 -0.469536 0.173843 0.225954 -0.355694 -0.160680 
-0.152170 0.003283 0.146020 -0.363126 0.032333 0.044383 -0.623622 -0.669467 -0.512566 0.194991 
-0.041254 0.383039 0.350734 -0.773168 0.199077 -0.134879 -0.715273 0.091694 -0.409774 0.384516 
0.179969 0.622859 0.688331 0.895994 -0.946574 1.230795 0.798666 -1.347339 0.961374 -1.594841 
0.194908 -0.165532 -0.365308 -0.482124 0.142018 -0.201200 -0.460858 -0.510668 -0.266756 -0.497269 
0.958604 0.533583 0.305094 0.950161 1.346929 0.842462 -0.010581 -1.655794 0.646404 1.401930 
-0.322536 0.113206 -0.237785 -0.362110 -0.415732 -0.235585 -0.016739 -0.277249 -0.490554 0.087603 
-0.048433 -0.107884 -0.123061 -0.105931 0.141682 0.270841 -0.064592 0.469472 -0.145184 -0.693493 
0.358800 0.371661 -0.644859 0.810681 0.320998 0.378444 0.015512 0.122059 0.541633 -0.091326 
0.152381 -0.941039 0.699474 0.326223 0.387710 0.176182 0.538834 -0.468217 0.783385 0.341871 
-0.227503 -0.059254 0.032870 -0.391420 0.379689 -0.392943 -0.401824 -0.361074 -0.283604 0.146314 
0.233515 0.209833 0.551450 -0.807961 -0.370337 0.910879 0.249753 0.482516 0.414288 -0.667137 
-0.336362 0.023164 -0.644430 0.370914 0.170909 0.845864 -0.537026 0.344448 -0.068425 -0.333810 
-0.124676 0.120355 -0.170634 0.023554 -0.025063 -0.006714 0.090666 -0.365510 -0.667872 0.280740 
-1.128526 0.251810 0.675684 0.304201 0.145579 0.090798 0.575063 0.498859 1.096890 -0.039330 
-0.272747 -0.329623 -0.192413 -0.524703 0.023130 -0.588654 -0.608931 -0.458617 -0.754449 -0.113409 
-0.469853 0.012008 -0.685180 -0.290653 -0.627094 0.051190 -0.004486 -0.096234 -0.300454 -0.308938 
0.185696 -0.352517 -0.139755 0.100004 0.218847 0.097128 -0.395506 0.329399 -0.039240 -0.512703 
0.195386 0.160943 -0.635858 -0.796677 -0.175507 -0.236588 0.012747 -0.125793 -0.084056 -0.444927 
-1.207061 0.143775 0.099020 0.890051 0.444977 0.155719 -0.397151 0.450253 0.067818 0.223278 
0.039516 0.057444 -0.649232 -0.291622 -0.514308 -0.095343 -0.127106 -0.456489 -0.254285 -0.077683 
0.187897 0.262904 0.219589 0.418273 0.771193 -1.584931 0.041998 0.403745 1.066493 -0.207516 
-0.370334 0.049051 -0.357053 -0.501859 0.005651 -0.390739 -0.185371 -0.459959 -0.575058 -0.343914 
-0.108708 0.050407 -0.649682 -0.579543 0.335311 0.125753 0.464428 0.039256 0.155262 -0.216614 
-0.110655 0.068282 0.084247 -0.339712 -0.608166 -0.099613 -0.287982 -0.127101 -0.366138 -0.228034 
-0.082763 0.072622 0.027319 -0.053670 0.276612 -0.470360 -0.388575 -0.374420 -0.532081 -0.124991 
0.446606 0.086194 0.397198 0.051611 -0.375693 0.204330 -0.201304 0.477498 0.264898 0.739419 
-0.218899 0.326180 0.464552 -1.123480 0.901488 -0.468647 0.512065 0.569991 1.183637 0.346587 
-0.430905 0.507772 0.141457 0.365639 0.807637 0.345228 0.467297 -1.580587 0.378841 1.457215 
0.253515 -0.559494 0.467609 -0.092675 -0.143998 0.689865 -0.003809 0.446733 0.486101 -1.176915 
-0.776752 0.070750 0.555670 0.545487 0.547547 0.126327 -0.857526 0.002725 -0.906881 -0.263990 
0.129954 -0.350001 0.293058 0.249994 0.056827 0.247580 -0.625979 0.290685 0.410373 -0.746079 
0.348928 -0.480199 0.756600 0.514249 -0.073528 0.455016 -0.335213 0.163321 0.321875 0.235229 
0.240663 0.380317 0.069840 0.064852 -0.595031 -0.234470 0.000560 0.425960 -0.202545 -0.011052 
-0.547042 -0.190252 0.095690 0.118990 0.278722 0.903344 0.355151 0.375268 0.186422 0.175693 
-0.115498 0.227175 0.127289 -0.245989 -0.109239 -0.036380 -0.377968 -0.712719 -0.377732 0.437857 
0.072609 0.114289 -0.075555 0.104523 0.276853 -0.963026 0.268103 0.396276 0.351615 -0.046124 
-0.119800 -0.133099 -0.365893 -0.398048 -0.344960 -0.554173 -0.545594 -0.268018 -0.467335 0.177950 
0.756100 0.423757 0.391203 0.620106 -0.182068 -1.526049 -0.491897 0.501616 0.921127 0.598392 
0.018646 0.316912 -0.363309 -0.157547 -0.388074 -0.520126 -0.297566 0.031029 -0.335399 -0.335992 
-0.254642 -0.687080 0.259011 -0.046286 -0.624815 -0.214435 0.010225 -0.336228 -0.500466 -0.123977 
0.330582 0.085669 -0.212946 -0.074453 -0.700328 -0.377041 -0.405480 0.204010 -0.378336 0.212536 
-0.158456 -0.138183 -0.233242 -0.630439 -0.558561 -0.240250 -0.277055 0.217201 -0.404228 -0.087768 
-0.043026 0.092852 -0.099318 -0.216013 -0.296045 0.291094 0.220609 -0.199027 -0.043972 0.015179 
-0.581107 -0.447801 -0.145158 -0.525018 -0.381312 -0.303300 -0.249955 -0.074220 -0.807517 -0.790186 
-0.145103 -0.514523 0.014031 0.035912 -0.436659 -0.333200 -0.331519 -0.062095 -0.602995 -0.039412 
-0.586527 -0.389620 0.028500 -0.885754 0.065874 -0.500472 -0.490224 -0.315032 -0.386588 -0.613959 
-0.208042 -0.416017 0.096071 -0.068927 -0.006522 -0.173553 -0.051018 -0.352350 -0.538240 -0.242820 
-0.014465 0.065619 -0.009847 -0.320473 0.079847 -0.418070 -0.173579 -0.638122 -0.134816 0.103118 
-0.223490 0.031036 -0.880837 -0.224360 0.063991 0.034721 0.193657 0.105037 0.040369 -0.379925 
-0.329506 -0.081337 -0.717143 -0.175891 -0.166389 -0.607664 0.191606 -0.259661 -0.454945 -0.513320 
-0.496907 0.251765 0.885809 0.008626 0.675194 0.357138 -1.092238 0.063136 0.184723 -0.350046 
-0.131735 0.266169 -0.469707 0.238294 0.540763 0.171322 -0.160778 -0.588423 -0.222555 0.547589 
0.226944 -0.370451 0.412292 -0.464023 -0.231167 0.608487 0.118352 0.674449 0.231675 0.426606 
0.301095 -0.026947 0.142670 -0.125117 0.341660 0.327032 -1.012967 0.071504 0.126139 0.291045 
-0.154110 -0.256380 0.000035 -0.789219 -0.304128 0.637093 0.268561 -0.463356 -0.188613 0.295758 
0.244807 0.001659 0.322731 0.092343 0.566150 0.412579 -0.429103 -0.006470 0.279436 -0.460548 
-0.248581 0.139834 -0.358871 -0.101453 0.154244 -0.280992 -0.086217 -0.439568 -0.399099 0.180813 
0.070598 0.112075 -0.454862 -0.184456 -0.011525 -0.110465 -0.377269 -0.247680 -0.181303 -0.415796 
0.058594 -0.129689 0.341632 1.084670 0.358784 1.239648 0.087929 -0.563444 -0.015070 -0.129623 
-0.135495 0.342942 0.037968 -0.590418 0.038399 1.643172 0.227321 -0.324192 -0.539718 -0.869042 
-0.893166 0.326522 0.869469 -1.068065 0.916078 0.818129 0.887636 -0.618734 0.935733 0.654290 
0.917402 0.823442 0.388448 0.331015 2.323301 -0.175205 0.789672 -1.582477 1.134520 -1.885207 
0.144613 -0.004073 -0.648502 -0.796210 0.261455 0.216694 0.108261 0.069483 0.017292 -0.093487 
0.115018 -0.229837 -0.390483 -0.103525 0.039981 -0.112958 -0.106882 -0.279232 -0.296690 -0.019782 
0.276229 0.079534 0.317058 -0.029670 0.288229 0.237578 0.324902 0.198886 0.510843 -0.675305 
0.136339 -0.264481 0.633074 0.527654 -0.266782 0.225910 -0.710680 0.193092 -0.481678 0.061736 
0.095169 0.292300 0.395655 0.345134 -0.179952 0.868864 0.234887 0.106472 0.513512 -0.341581 
-0.443034 0.104970 -0.270681 -0.502787 -0.371516 1.064379 0.321380 0.298246 -0.031141 0.088488 
-0.008276 0.136758 -0.004502 -0.062044 0.711430 0.514368 -0.748765 -0.236715 -0.068775 -0.332522 
-0.399586 -0.466309 -0.126289 -0.158008 -0.112658 0.037496 0.078477 0.053951 -0.399268 0.063071 
-0.113101 0.396735 -0.248116 -0.177882 0.221574 0.038884 0.108489 0.085617 -0.221202 -0.126428 
-0.404110 -0.314918 -0.232003 0.041090 0.145719 -0.156572 0.130078 -0.083693 -0.423993 -0.331654 
-1.487042 0.462652 0.402735 -1.500031 -0.313527 -1.271483 0.600766 0.422518 -1.843671 0.489113 
0.474540 -0.525486 -0.742455 0.590324 0.493652 0.100548 -0.503312 0.410610 0.665085 0.244195 
-0.334576 0.004490 -0.382631 -0.578814 -0.402222 -0.533616 -0.395916 -0.161445 -0.667517 -0.721442 
-0.433229 -0.205876 -0.221808 -0.297020 0.022611 0.025722 -0.579070 -0.175144 -0.606038 -0.637768 
0.352993 -0.574980 0.370689 0.310409 0.031468 -0.084703 0.059822 0.473685 0.089114 -0.089986 
0.461915 0.057575 -0.538154 -1.003261 -0.316261 -0.409559 0.734358 -0.079959 -0.914863 0.170335 
-0.174307 -0.602463 1.018886 0.520100 -0.202703 0.337264 0.031428 -0.048869 -0.303520 -0.186676 
0.135562 0.349691 0.121372 -0.147064 -0.576186 -0.039748 0.165934 0.593267 0.323112 0.386876 
0.056902 -0.353114 -0.754115 -0.074965 -0.513486 -0.508408 -0.457854 -0.263427 -0.395979 -0.500731 
-0.386184 -0.389732 -0.644897 -0.085107 0.273657 -0.083722 -0.019176 0.389639 -0.045194 -0.523712 
-0.547584 0.406338 -0.000501 0.122488 0.252492 -0.195657 0.893123 1.071125 -1.242751 -0.772461 
0.272417 -0.725223 0.004419 0.580978 0.526796 0.304780 0.773204 0.037123 -0.807677 -0.440327 
-0.357829 -0.218657 0.000142 -0.305190 -0.526869 -0.519265 -0.129691 -0.042463 -0.774578 0.008073 
0.056498 -0.362709 0.078674 -0.675139 -0.296299 0.383934 0.308310 0.535374 0.780479 0.251350 
0.716607 0.456704 -0.013602 0.166926 -1.343344 0.778938 0.761970 -0.241143 0.326220 -0.021301 
-0.559342 -0.331759 -0.421754 -0.149728 -0.247961 -0.549036 0.033012 0.186818 -0.242940 -0.502041 
-0.092546 -0.111736 -0.391797 -0.138919 -0.340774 0.171721 -0.075953 -0.543681 -0.321148 0.189182 
-0.394053 0.148665 0.555301 1.041478 0.554736 -0.282506 0.175157 0.295069 0.758066 -0.081334 
0.052182 -0.080075 -0.279169 0.138212 0.426680 0.202200 -0.006272 -0.572121 0.011419 0.106724 
0.144090 -1.667890 -0.656702 0.633509 0.436771 0.409377 1.322571 0.191973 1.073580 0.519081 
0.142494 -1.152113 0.713057 -0.030394 -0.507867 -0.055791 0.325293 -0.112523 0.258179 -0.189038 
0.072914 0.180263 0.062265 -0.571971 -0.490912 -0.470181 0.164817 -0.305820 -0.234021 0.169882 
0.090036 0.110367 -0.098247 -0.144076 -0.018365 0.124411 -0.612503 0.217541 0.278538 -0.612311 
-0.815049 0.615128 -1.387856 -0.919689 0.811254 1.165030 0.739571 0.115702 0.308505 0.659310 
-0.042203 0.215792 -1.673606 -0.139900 0.730509 0.467854 -0.275995 0.401377 -1.511025 -0.075392 
0.232428 -0.050952 0.038260 0.203336 -0.084493 0.143444 -0.170208 -0.157090 -0.186213 0.310680 
0.226836 -0.230683 0.072704 -0.108737 -0.110750 0.261153 -0.342650 -0.131783 -0.046953 -0.491331 
-0.205338 0.495851 1.406057 0.434704 -1.058252 0.035740 -1.047082 -0.597735 0.835108 0.793614 
-0.009706 0.316466 -0.170212 0.052530 -0.341406 -0.418409 -0.163474 0.108558 -0.221321 0.155731 
0.020266 -0.122388 0.180462 -0.582740 -0.597739 -0.362040 -0.049780 -0.125410 -0.322077 -0.181775 
0.161913 0.064833 -0.128000 0.222887 0.366736 -0.236432 0.271726 -0.654321 -0.000912 1.079412 
0.395279 -0.607447 0.816798 -0.598168 0.337461 0.386142 0.458241 0.540729 -0.651141 0.023912 
